digraph Tree {
node [shape=box] ;
0 [label="Parking <= 0.5\ngini = 0.312\nsamples = 8744\nvalue = [1694, 7050]\nclass = High"] ;
1 [label="BikeParking <= 0.5\ngini = 0.364\nsamples = 5435\nvalue = [1302, 4133]\nclass = High"] ;
0 -> 1 [labeldistance=2.5, labelangle=45, headlabel="True"] ;
2 [label="review_count <= 3.5\ngini = 0.384\nsamples = 4345\nvalue = [1125, 3220]\nclass = High"] ;
1 -> 2 ;
3 [label="RestaurantsTakeOut <= 0.5\ngini = 0.429\nsamples = 1263\nvalue = [393, 870]\nclass = High"] ;
2 -> 3 ;
4 [label="GoodForKids <= 0.5\ngini = 0.418\nsamples = 1108\nvalue = [330, 778]\nclass = High"] ;
3 -> 4 ;
5 [label="RestaurantsAttire <= 0.5\ngini = 0.422\nsamples = 1028\nvalue = [311, 717]\nclass = High"] ;
4 -> 5 ;
6 [label="is_open <= 0.5\ngini = 0.423\nsamples = 1025\nvalue = [311, 714]\nclass = High"] ;
5 -> 6 ;
7 [label="BusinessAcceptsCreditCards <= 0.5\ngini = 0.451\nsamples = 105\nvalue = [36, 69]\nclass = High"] ;
6 -> 7 ;
8 [label="RestaurantsPriceRange2 <= 1.5\ngini = 0.493\nsamples = 50\nvalue = [22, 28]\nclass = High"] ;
7 -> 8 ;
9 [label="WiFi <= 0.5\ngini = 0.482\nsamples = 47\nvalue = [19, 28]\nclass = High"] ;
8 -> 9 ;
10 [label="gini = 0.485\nsamples = 46\nvalue = [19, 27]\nclass = High"] ;
9 -> 10 ;
11 [label="gini = 0.0\nsamples = 1\nvalue = [0, 1]\nclass = High"] ;
9 -> 11 ;
12 [label="gini = 0.0\nsamples = 3\nvalue = [3, 0]\nclass = Low"] ;
8 -> 12 ;
13 [label="Alcohol <= 0.5\ngini = 0.38\nsamples = 55\nvalue = [14, 41]\nclass = High"] ;
7 -> 13 ;
14 [label="RestaurantsPriceRange2 <= 3.5\ngini = 0.33\nsamples = 48\nvalue = [10, 38]\nclass = High"] ;
13 -> 14 ;
15 [label="gini = 0.315\nsamples = 46\nvalue = [9, 37]\nclass = High"] ;
14 -> 15 ;
16 [label="gini = 0.5\nsamples = 2\nvalue = [1, 1]\nclass = Low"] ;
14 -> 16 ;
17 [label="NoiseLevel <= 0.5\ngini = 0.49\nsamples = 7\nvalue = [4, 3]\nclass = Low"] ;
13 -> 17 ;
18 [label="gini = 0.5\nsamples = 6\nvalue = [3, 3]\nclass = Low"] ;
17 -> 18 ;
19 [label="gini = 0.0\nsamples = 1\nvalue = [1, 0]\nclass = Low"] ;
17 -> 19 ;
20 [label="NoiseLevel <= 0.5\ngini = 0.419\nsamples = 920\nvalue = [275, 645]\nclass = High"] ;
6 -> 20 ;
21 [label="RestaurantsPriceRange2 <= 3.5\ngini = 0.42\nsamples = 918\nvalue = [275, 643]\nclass = High"] ;
20 -> 21 ;
22 [label="RestaurantsPriceRange2 <= 2.5\ngini = 0.42\nsamples = 912\nvalue = [274, 638]\nclass = High"] ;
21 -> 22 ;
23 [label="gini = 0.419\nsamples = 880\nvalue = [263, 617]\nclass = High"] ;
22 -> 23 ;
24 [label="gini = 0.451\nsamples = 32\nvalue = [11, 21]\nclass = High"] ;
22 -> 24 ;
25 [label="BusinessAcceptsCreditCards <= 0.5\ngini = 0.278\nsamples = 6\nvalue = [1, 5]\nclass = High"] ;
21 -> 25 ;
26 [label="gini = 0.0\nsamples = 2\nvalue = [0, 2]\nclass = High"] ;
25 -> 26 ;
27 [label="gini = 0.375\nsamples = 4\nvalue = [1, 3]\nclass = High"] ;
25 -> 27 ;
28 [label="gini = 0.0\nsamples = 2\nvalue = [0, 2]\nclass = High"] ;
20 -> 28 ;
29 [label="gini = 0.0\nsamples = 3\nvalue = [0, 3]\nclass = High"] ;
5 -> 29 ;
30 [label="BusinessAcceptsCreditCards <= 0.5\ngini = 0.362\nsamples = 80\nvalue = [19, 61]\nclass = High"] ;
4 -> 30 ;
31 [label="RestaurantsPriceRange2 <= 0.5\ngini = 0.265\nsamples = 51\nvalue = [8, 43]\nclass = High"] ;
30 -> 31 ;
32 [label="is_open <= 0.5\ngini = 0.292\nsamples = 45\nvalue = [8, 37]\nclass = High"] ;
31 -> 32 ;
33 [label="gini = 0.245\nsamples = 7\nvalue = [1, 6]\nclass = High"] ;
32 -> 33 ;
34 [label="gini = 0.301\nsamples = 38\nvalue = [7, 31]\nclass = High"] ;
32 -> 34 ;
35 [label="gini = 0.0\nsamples = 6\nvalue = [0, 6]\nclass = High"] ;
31 -> 35 ;
36 [label="Alcohol <= 0.5\ngini = 0.471\nsamples = 29\nvalue = [11, 18]\nclass = High"] ;
30 -> 36 ;
37 [label="RestaurantsPriceRange2 <= 2.5\ngini = 0.459\nsamples = 28\nvalue = [10, 18]\nclass = High"] ;
36 -> 37 ;
38 [label="is_open <= 0.5\ngini = 0.466\nsamples = 27\nvalue = [10, 17]\nclass = High"] ;
37 -> 38 ;
39 [label="RestaurantsPriceRange2 <= 1.5\ngini = 0.375\nsamples = 4\nvalue = [1, 3]\nclass = High"] ;
38 -> 39 ;
40 [label="gini = 0.0\nsamples = 3\nvalue = [0, 3]\nclass = High"] ;
39 -> 40 ;
41 [label="gini = 0.0\nsamples = 1\nvalue = [1, 0]\nclass = Low"] ;
39 -> 41 ;
42 [label="RestaurantsPriceRange2 <= 1.5\ngini = 0.476\nsamples = 23\nvalue = [9, 14]\nclass = High"] ;
38 -> 42 ;
43 [label="gini = 0.498\nsamples = 17\nvalue = [8, 9]\nclass = High"] ;
42 -> 43 ;
44 [label="gini = 0.278\nsamples = 6\nvalue = [1, 5]\nclass = High"] ;
42 -> 44 ;
45 [label="gini = 0.0\nsamples = 1\nvalue = [0, 1]\nclass = High"] ;
37 -> 45 ;
46 [label="gini = 0.0\nsamples = 1\nvalue = [1, 0]\nclass = Low"] ;
36 -> 46 ;
47 [label="is_open <= 0.5\ngini = 0.482\nsamples = 155\nvalue = [63, 92]\nclass = High"] ;
3 -> 47 ;
48 [label="Alcohol <= 0.5\ngini = 0.353\nsamples = 35\nvalue = [8, 27]\nclass = High"] ;
47 -> 48 ;
49 [label="GoodForKids <= 0.5\ngini = 0.236\nsamples = 22\nvalue = [3, 19]\nclass = High"] ;
48 -> 49 ;
50 [label="gini = 0.0\nsamples = 10\nvalue = [0, 10]\nclass = High"] ;
49 -> 50 ;
51 [label="RestaurantsPriceRange2 <= 0.5\ngini = 0.375\nsamples = 12\nvalue = [3, 9]\nclass = High"] ;
49 -> 51 ;
52 [label="gini = 0.0\nsamples = 5\nvalue = [0, 5]\nclass = High"] ;
51 -> 52 ;
53 [label="BusinessAcceptsCreditCards <= 0.5\ngini = 0.49\nsamples = 7\nvalue = [3, 4]\nclass = High"] ;
51 -> 53 ;
54 [label="gini = 0.0\nsamples = 1\nvalue = [0, 1]\nclass = High"] ;
53 -> 54 ;
55 [label="RestaurantsPriceRange2 <= 1.5\ngini = 0.5\nsamples = 6\nvalue = [3, 3]\nclass = Low"] ;
53 -> 55 ;
56 [label="gini = 0.48\nsamples = 5\nvalue = [2, 3]\nclass = High"] ;
55 -> 56 ;
57 [label="gini = 0.0\nsamples = 1\nvalue = [1, 0]\nclass = Low"] ;
55 -> 57 ;
58 [label="NoiseLevel <= 0.5\ngini = 0.473\nsamples = 13\nvalue = [5, 8]\nclass = High"] ;
48 -> 58 ;
59 [label="WiFi <= 0.5\ngini = 0.486\nsamples = 12\nvalue = [5, 7]\nclass = High"] ;
58 -> 59 ;
60 [label="RestaurantsPriceRange2 <= 1.5\ngini = 0.463\nsamples = 11\nvalue = [4, 7]\nclass = High"] ;
59 -> 60 ;
61 [label="gini = 0.0\nsamples = 1\nvalue = [0, 1]\nclass = High"] ;
60 -> 61 ;
62 [label="GoodForKids <= 0.5\ngini = 0.48\nsamples = 10\nvalue = [4, 6]\nclass = High"] ;
60 -> 62 ;
63 [label="gini = 0.48\nsamples = 5\nvalue = [2, 3]\nclass = High"] ;
62 -> 63 ;
64 [label="gini = 0.48\nsamples = 5\nvalue = [2, 3]\nclass = High"] ;
62 -> 64 ;
65 [label="gini = 0.0\nsamples = 1\nvalue = [1, 0]\nclass = Low"] ;
59 -> 65 ;
66 [label="gini = 0.0\nsamples = 1\nvalue = [0, 1]\nclass = High"] ;
58 -> 66 ;
67 [label="Alcohol <= 0.5\ngini = 0.497\nsamples = 120\nvalue = [55, 65]\nclass = High"] ;
47 -> 67 ;
68 [label="RestaurantsAttire <= 0.5\ngini = 0.499\nsamples = 116\nvalue = [55, 61]\nclass = High"] ;
67 -> 68 ;
69 [label="RestaurantsPriceRange2 <= 3.5\ngini = 0.498\nsamples = 115\nvalue = [54, 61]\nclass = High"] ;
68 -> 69 ;
70 [label="WiFi <= 0.5\ngini = 0.498\nsamples = 114\nvalue = [53, 61]\nclass = High"] ;
69 -> 70 ;
71 [label="RestaurantsPriceRange2 <= 1.5\ngini = 0.499\nsamples = 107\nvalue = [51, 56]\nclass = High"] ;
70 -> 71 ;
72 [label="gini = 0.5\nsamples = 84\nvalue = [42, 42]\nclass = Low"] ;
71 -> 72 ;
73 [label="gini = 0.476\nsamples = 23\nvalue = [9, 14]\nclass = High"] ;
71 -> 73 ;
74 [label="NoiseLevel <= 0.5\ngini = 0.408\nsamples = 7\nvalue = [2, 5]\nclass = High"] ;
70 -> 74 ;
75 [label="gini = 0.444\nsamples = 6\nvalue = [2, 4]\nclass = High"] ;
74 -> 75 ;
76 [label="gini = 0.0\nsamples = 1\nvalue = [0, 1]\nclass = High"] ;
74 -> 76 ;
77 [label="gini = 0.0\nsamples = 1\nvalue = [1, 0]\nclass = Low"] ;
69 -> 77 ;
78 [label="gini = 0.0\nsamples = 1\nvalue = [1, 0]\nclass = Low"] ;
68 -> 78 ;
79 [label="gini = 0.0\nsamples = 4\nvalue = [0, 4]\nclass = High"] ;
67 -> 79 ;
80 [label="RestaurantsPriceRange2 <= 0.5\ngini = 0.362\nsamples = 3082\nvalue = [732, 2350]\nclass = High"] ;
2 -> 80 ;
81 [label="GoodForKids <= 0.5\ngini = 0.336\nsamples = 1599\nvalue = [342, 1257]\nclass = High"] ;
80 -> 81 ;
82 [label="review_count <= 40.5\ngini = 0.35\nsamples = 1384\nvalue = [313, 1071]\nclass = High"] ;
81 -> 82 ;
83 [label="BusinessAcceptsCreditCards <= 0.5\ngini = 0.346\nsamples = 1374\nvalue = [306, 1068]\nclass = High"] ;
82 -> 83 ;
84 [label="WiFi <= 0.5\ngini = 0.382\nsamples = 681\nvalue = [175, 506]\nclass = High"] ;
83 -> 84 ;
85 [label="review_count <= 6.5\ngini = 0.386\nsamples = 661\nvalue = [173, 488]\nclass = High"] ;
84 -> 85 ;
86 [label="review_count <= 4.5\ngini = 0.403\nsamples = 440\nvalue = [123, 317]\nclass = High"] ;
85 -> 86 ;
87 [label="gini = 0.383\nsamples = 236\nvalue = [61, 175]\nclass = High"] ;
86 -> 87 ;
88 [label="gini = 0.423\nsamples = 204\nvalue = [62, 142]\nclass = High"] ;
86 -> 88 ;
89 [label="is_open <= 0.5\ngini = 0.35\nsamples = 221\nvalue = [50, 171]\nclass = High"] ;
85 -> 89 ;
90 [label="gini = 0.48\nsamples = 15\nvalue = [6, 9]\nclass = High"] ;
89 -> 90 ;
91 [label="gini = 0.336\nsamples = 206\nvalue = [44, 162]\nclass = High"] ;
89 -> 91 ;
92 [label="review_count <= 19.0\ngini = 0.18\nsamples = 20\nvalue = [2, 18]\nclass = High"] ;
84 -> 92 ;
93 [label="review_count <= 5.5\ngini = 0.105\nsamples = 18\nvalue = [1, 17]\nclass = High"] ;
92 -> 93 ;
94 [label="gini = 0.245\nsamples = 7\nvalue = [1, 6]\nclass = High"] ;
93 -> 94 ;
95 [label="gini = 0.0\nsamples = 11\nvalue = [0, 11]\nclass = High"] ;
93 -> 95 ;
96 [label="review_count <= 28.0\ngini = 0.5\nsamples = 2\nvalue = [1, 1]\nclass = Low"] ;
92 -> 96 ;
97 [label="gini = 0.0\nsamples = 1\nvalue = [1, 0]\nclass = Low"] ;
96 -> 97 ;
98 [label="gini = 0.0\nsamples = 1\nvalue = [0, 1]\nclass = High"] ;
96 -> 98 ;
99 [label="RestaurantsTakeOut <= 0.5\ngini = 0.307\nsamples = 693\nvalue = [131, 562]\nclass = High"] ;
83 -> 99 ;
100 [label="WiFi <= 0.5\ngini = 0.295\nsamples = 666\nvalue = [120, 546]\nclass = High"] ;
99 -> 100 ;
101 [label="review_count <= 19.5\ngini = 0.293\nsamples = 663\nvalue = [118, 545]\nclass = High"] ;
100 -> 101 ;
102 [label="gini = 0.301\nsamples = 629\nvalue = [116, 513]\nclass = High"] ;
101 -> 102 ;
103 [label="gini = 0.111\nsamples = 34\nvalue = [2, 32]\nclass = High"] ;
101 -> 103 ;
104 [label="review_count <= 21.0\ngini = 0.444\nsamples = 3\nvalue = [2, 1]\nclass = Low"] ;
100 -> 104 ;
105 [label="gini = 0.0\nsamples = 2\nvalue = [2, 0]\nclass = Low"] ;
104 -> 105 ;
106 [label="gini = 0.0\nsamples = 1\nvalue = [0, 1]\nclass = High"] ;
104 -> 106 ;
107 [label="review_count <= 7.5\ngini = 0.483\nsamples = 27\nvalue = [11, 16]\nclass = High"] ;
99 -> 107 ;
108 [label="Alcohol <= 0.5\ngini = 0.499\nsamples = 21\nvalue = [11, 10]\nclass = Low"] ;
107 -> 108 ;
109 [label="gini = 0.488\nsamples = 19\nvalue = [11, 8]\nclass = Low"] ;
108 -> 109 ;
110 [label="gini = 0.0\nsamples = 2\nvalue = [0, 2]\nclass = High"] ;
108 -> 110 ;
111 [label="gini = 0.0\nsamples = 6\nvalue = [0, 6]\nclass = High"] ;
107 -> 111 ;
112 [label="review_count <= 94.0\ngini = 0.42\nsamples = 10\nvalue = [7, 3]\nclass = Low"] ;
82 -> 112 ;
113 [label="review_count <= 45.0\ngini = 0.219\nsamples = 8\nvalue = [7, 1]\nclass = Low"] ;
112 -> 113 ;
114 [label="review_count <= 43.0\ngini = 0.5\nsamples = 2\nvalue = [1, 1]\nclass = Low"] ;
113 -> 114 ;
115 [label="gini = 0.0\nsamples = 1\nvalue = [1, 0]\nclass = Low"] ;
114 -> 115 ;
116 [label="gini = 0.0\nsamples = 1\nvalue = [0, 1]\nclass = High"] ;
114 -> 116 ;
117 [label="gini = 0.0\nsamples = 6\nvalue = [6, 0]\nclass = Low"] ;
113 -> 117 ;
118 [label="gini = 0.0\nsamples = 2\nvalue = [0, 2]\nclass = High"] ;
112 -> 118 ;
119 [label="RestaurantsTakeOut <= 0.5\ngini = 0.233\nsamples = 215\nvalue = [29, 186]\nclass = High"] ;
81 -> 119 ;
120 [label="review_count <= 10.5\ngini = 0.159\nsamples = 172\nvalue = [15, 157]\nclass = High"] ;
119 -> 120 ;
121 [label="review_count <= 4.5\ngini = 0.21\nsamples = 126\nvalue = [15, 111]\nclass = High"] ;
120 -> 121 ;
122 [label="BusinessAcceptsCreditCards <= 0.5\ngini = 0.157\nsamples = 35\nvalue = [3, 32]\nclass = High"] ;
121 -> 122 ;
123 [label="is_open <= 0.5\ngini = 0.087\nsamples = 22\nvalue = [1, 21]\nclass = High"] ;
122 -> 123 ;
124 [label="gini = 0.0\nsamples = 4\nvalue = [0, 4]\nclass = High"] ;
123 -> 124 ;
125 [label="gini = 0.105\nsamples = 18\nvalue = [1, 17]\nclass = High"] ;
123 -> 125 ;
126 [label="gini = 0.26\nsamples = 13\nvalue = [2, 11]\nclass = High"] ;
122 -> 126 ;
127 [label="BusinessAcceptsCreditCards <= 0.5\ngini = 0.229\nsamples = 91\nvalue = [12, 79]\nclass = High"] ;
121 -> 127 ;
128 [label="is_open <= 0.5\ngini = 0.26\nsamples = 65\nvalue = [10, 55]\nclass = High"] ;
127 -> 128 ;
129 [label="gini = 0.375\nsamples = 4\nvalue = [1, 3]\nclass = High"] ;
128 -> 129 ;
130 [label="gini = 0.252\nsamples = 61\nvalue = [9, 52]\nclass = High"] ;
128 -> 130 ;
131 [label="review_count <= 6.5\ngini = 0.142\nsamples = 26\nvalue = [2, 24]\nclass = High"] ;
127 -> 131 ;
132 [label="gini = 0.0\nsamples = 12\nvalue = [0, 12]\nclass = High"] ;
131 -> 132 ;
133 [label="gini = 0.245\nsamples = 14\nvalue = [2, 12]\nclass = High"] ;
131 -> 133 ;
134 [label="gini = 0.0\nsamples = 46\nvalue = [0, 46]\nclass = High"] ;
120 -> 134 ;
135 [label="NoiseLevel <= 0.5\ngini = 0.439\nsamples = 43\nvalue = [14, 29]\nclass = High"] ;
119 -> 135 ;
136 [label="review_count <= 7.5\ngini = 0.427\nsamples = 42\nvalue = [13, 29]\nclass = High"] ;
135 -> 136 ;
137 [label="WiFi <= 0.5\ngini = 0.467\nsamples = 35\nvalue = [13, 22]\nclass = High"] ;
136 -> 137 ;
138 [label="review_count <= 4.5\ngini = 0.478\nsamples = 33\nvalue = [13, 20]\nclass = High"] ;
137 -> 138 ;
139 [label="gini = 0.408\nsamples = 14\nvalue = [4, 10]\nclass = High"] ;
138 -> 139 ;
140 [label="gini = 0.499\nsamples = 19\nvalue = [9, 10]\nclass = High"] ;
138 -> 140 ;
141 [label="gini = 0.0\nsamples = 2\nvalue = [0, 2]\nclass = High"] ;
137 -> 141 ;
142 [label="gini = 0.0\nsamples = 7\nvalue = [0, 7]\nclass = High"] ;
136 -> 142 ;
143 [label="gini = 0.0\nsamples = 1\nvalue = [1, 0]\nclass = Low"] ;
135 -> 143 ;
144 [label="WiFi <= 0.5\ngini = 0.388\nsamples = 1483\nvalue = [390, 1093]\nclass = High"] ;
80 -> 144 ;
145 [label="NoiseLevel <= 0.5\ngini = 0.373\nsamples = 1173\nvalue = [291, 882]\nclass = High"] ;
144 -> 145 ;
146 [label="RestaurantsAttire <= 0.5\ngini = 0.365\nsamples = 1103\nvalue = [265, 838]\nclass = High"] ;
145 -> 146 ;
147 [label="review_count <= 89.0\ngini = 0.368\nsamples = 1086\nvalue = [264, 822]\nclass = High"] ;
146 -> 147 ;
148 [label="review_count <= 34.5\ngini = 0.367\nsamples = 1085\nvalue = [263, 822]\nclass = High"] ;
147 -> 148 ;
149 [label="review_count <= 32.5\ngini = 0.37\nsamples = 1070\nvalue = [262, 808]\nclass = High"] ;
148 -> 149 ;
150 [label="gini = 0.369\nsamples = 1067\nvalue = [260, 807]\nclass = High"] ;
149 -> 150 ;
151 [label="gini = 0.444\nsamples = 3\nvalue = [2, 1]\nclass = Low"] ;
149 -> 151 ;
152 [label="review_count <= 52.0\ngini = 0.124\nsamples = 15\nvalue = [1, 14]\nclass = High"] ;
148 -> 152 ;
153 [label="gini = 0.0\nsamples = 11\nvalue = [0, 11]\nclass = High"] ;
152 -> 153 ;
154 [label="gini = 0.375\nsamples = 4\nvalue = [1, 3]\nclass = High"] ;
152 -> 154 ;
155 [label="gini = 0.0\nsamples = 1\nvalue = [1, 0]\nclass = Low"] ;
147 -> 155 ;
156 [label="GoodForKids <= 0.5\ngini = 0.111\nsamples = 17\nvalue = [1, 16]\nclass = High"] ;
146 -> 156 ;
157 [label="gini = 0.0\nsamples = 14\nvalue = [0, 14]\nclass = High"] ;
156 -> 157 ;
158 [label="RestaurantsPriceRange2 <= 1.5\ngini = 0.444\nsamples = 3\nvalue = [1, 2]\nclass = High"] ;
156 -> 158 ;
159 [label="gini = 0.0\nsamples = 2\nvalue = [0, 2]\nclass = High"] ;
158 -> 159 ;
160 [label="gini = 0.0\nsamples = 1\nvalue = [1, 0]\nclass = Low"] ;
158 -> 160 ;
161 [label="RestaurantsTakeOut <= 0.5\ngini = 0.467\nsamples = 70\nvalue = [26, 44]\nclass = High"] ;
145 -> 161 ;
162 [label="RestaurantsPriceRange2 <= 1.5\ngini = 0.32\nsamples = 25\nvalue = [5, 20]\nclass = High"] ;
161 -> 162 ;
163 [label="gini = 0.0\nsamples = 10\nvalue = [0, 10]\nclass = High"] ;
162 -> 163 ;
164 [label="BusinessAcceptsCreditCards <= 0.5\ngini = 0.444\nsamples = 15\nvalue = [5, 10]\nclass = High"] ;
162 -> 164 ;
165 [label="gini = 0.0\nsamples = 3\nvalue = [0, 3]\nclass = High"] ;
164 -> 165 ;
166 [label="GoodForKids <= 0.5\ngini = 0.486\nsamples = 12\nvalue = [5, 7]\nclass = High"] ;
164 -> 166 ;
167 [label="gini = 0.496\nsamples = 11\nvalue = [5, 6]\nclass = High"] ;
166 -> 167 ;
168 [label="gini = 0.0\nsamples = 1\nvalue = [0, 1]\nclass = High"] ;
166 -> 168 ;
169 [label="review_count <= 34.5\ngini = 0.498\nsamples = 45\nvalue = [21, 24]\nclass = High"] ;
161 -> 169 ;
170 [label="review_count <= 4.5\ngini = 0.493\nsamples = 43\nvalue = [19, 24]\nclass = High"] ;
169 -> 170 ;
171 [label="Alcohol <= 0.5\ngini = 0.375\nsamples = 4\nvalue = [3, 1]\nclass = Low"] ;
170 -> 171 ;
172 [label="gini = 0.5\nsamples = 2\nvalue = [1, 1]\nclass = Low"] ;
171 -> 172 ;
173 [label="gini = 0.0\nsamples = 2\nvalue = [2, 0]\nclass = Low"] ;
171 -> 173 ;
174 [label="is_open <= 0.5\ngini = 0.484\nsamples = 39\nvalue = [16, 23]\nclass = High"] ;
170 -> 174 ;
175 [label="gini = 0.494\nsamples = 9\nvalue = [5, 4]\nclass = Low"] ;
174 -> 175 ;
176 [label="gini = 0.464\nsamples = 30\nvalue = [11, 19]\nclass = High"] ;
174 -> 176 ;
177 [label="gini = 0.0\nsamples = 2\nvalue = [2, 0]\nclass = Low"] ;
169 -> 177 ;
178 [label="review_count <= 21.5\ngini = 0.435\nsamples = 310\nvalue = [99, 211]\nclass = High"] ;
144 -> 178 ;
179 [label="is_open <= 0.5\ngini = 0.467\nsamples = 239\nvalue = [89, 150]\nclass = High"] ;
178 -> 179 ;
180 [label="RestaurantsPriceRange2 <= 1.5\ngini = 0.5\nsamples = 28\nvalue = [14, 14]\nclass = Low"] ;
179 -> 180 ;
181 [label="review_count <= 4.5\ngini = 0.375\nsamples = 12\nvalue = [3, 9]\nclass = High"] ;
180 -> 181 ;
182 [label="GoodForKids <= 0.5\ngini = 0.5\nsamples = 4\nvalue = [2, 2]\nclass = Low"] ;
181 -> 182 ;
183 [label="gini = 0.444\nsamples = 3\nvalue = [2, 1]\nclass = Low"] ;
182 -> 183 ;
184 [label="gini = 0.0\nsamples = 1\nvalue = [0, 1]\nclass = High"] ;
182 -> 184 ;
185 [label="review_count <= 9.5\ngini = 0.219\nsamples = 8\nvalue = [1, 7]\nclass = High"] ;
181 -> 185 ;
186 [label="gini = 0.0\nsamples = 6\nvalue = [0, 6]\nclass = High"] ;
185 -> 186 ;
187 [label="gini = 0.5\nsamples = 2\nvalue = [1, 1]\nclass = Low"] ;
185 -> 187 ;
188 [label="Alcohol <= 0.5\ngini = 0.43\nsamples = 16\nvalue = [11, 5]\nclass = Low"] ;
180 -> 188 ;
189 [label="RestaurantsTakeOut <= 0.5\ngini = 0.198\nsamples = 9\nvalue = [8, 1]\nclass = Low"] ;
188 -> 189 ;
190 [label="gini = 0.0\nsamples = 8\nvalue = [8, 0]\nclass = Low"] ;
189 -> 190 ;
191 [label="gini = 0.0\nsamples = 1\nvalue = [0, 1]\nclass = High"] ;
189 -> 191 ;
192 [label="review_count <= 10.0\ngini = 0.49\nsamples = 7\nvalue = [3, 4]\nclass = High"] ;
188 -> 192 ;
193 [label="gini = 0.0\nsamples = 3\nvalue = [0, 3]\nclass = High"] ;
192 -> 193 ;
194 [label="gini = 0.375\nsamples = 4\nvalue = [3, 1]\nclass = Low"] ;
192 -> 194 ;
195 [label="RestaurantsPriceRange2 <= 1.5\ngini = 0.458\nsamples = 211\nvalue = [75, 136]\nclass = High"] ;
179 -> 195 ;
196 [label="RestaurantsTakeOut <= 0.5\ngini = 0.492\nsamples = 85\nvalue = [37, 48]\nclass = High"] ;
195 -> 196 ;
197 [label="review_count <= 4.5\ngini = 0.472\nsamples = 21\nvalue = [13, 8]\nclass = Low"] ;
196 -> 197 ;
198 [label="gini = 0.0\nsamples = 3\nvalue = [3, 0]\nclass = Low"] ;
197 -> 198 ;
199 [label="gini = 0.494\nsamples = 18\nvalue = [10, 8]\nclass = Low"] ;
197 -> 199 ;
200 [label="NoiseLevel <= 0.5\ngini = 0.469\nsamples = 64\nvalue = [24, 40]\nclass = High"] ;
196 -> 200 ;
201 [label="gini = 0.452\nsamples = 58\nvalue = [20, 38]\nclass = High"] ;
200 -> 201 ;
202 [label="gini = 0.444\nsamples = 6\nvalue = [4, 2]\nclass = Low"] ;
200 -> 202 ;
203 [label="RestaurantsAttire <= 0.5\ngini = 0.421\nsamples = 126\nvalue = [38, 88]\nclass = High"] ;
195 -> 203 ;
204 [label="RestaurantsPriceRange2 <= 3.5\ngini = 0.417\nsamples = 125\nvalue = [37, 88]\nclass = High"] ;
203 -> 204 ;
205 [label="gini = 0.409\nsamples = 122\nvalue = [35, 87]\nclass = High"] ;
204 -> 205 ;
206 [label="gini = 0.444\nsamples = 3\nvalue = [2, 1]\nclass = Low"] ;
204 -> 206 ;
207 [label="gini = 0.0\nsamples = 1\nvalue = [1, 0]\nclass = Low"] ;
203 -> 207 ;
208 [label="review_count <= 24.5\ngini = 0.242\nsamples = 71\nvalue = [10, 61]\nclass = High"] ;
178 -> 208 ;
209 [label="gini = 0.0\nsamples = 14\nvalue = [0, 14]\nclass = High"] ;
208 -> 209 ;
210 [label="review_count <= 31.5\ngini = 0.289\nsamples = 57\nvalue = [10, 47]\nclass = High"] ;
208 -> 210 ;
211 [label="NoiseLevel <= 0.5\ngini = 0.49\nsamples = 14\nvalue = [6, 8]\nclass = High"] ;
210 -> 211 ;
212 [label="Alcohol <= 0.5\ngini = 0.473\nsamples = 13\nvalue = [5, 8]\nclass = High"] ;
211 -> 212 ;
213 [label="gini = 0.496\nsamples = 11\nvalue = [5, 6]\nclass = High"] ;
212 -> 213 ;
214 [label="gini = 0.0\nsamples = 2\nvalue = [0, 2]\nclass = High"] ;
212 -> 214 ;
215 [label="gini = 0.0\nsamples = 1\nvalue = [1, 0]\nclass = Low"] ;
211 -> 215 ;
216 [label="RestaurantsTakeOut <= 0.5\ngini = 0.169\nsamples = 43\nvalue = [4, 39]\nclass = High"] ;
210 -> 216 ;
217 [label="RestaurantsPriceRange2 <= 1.5\ngini = 0.219\nsamples = 32\nvalue = [4, 28]\nclass = High"] ;
216 -> 217 ;
218 [label="gini = 0.0\nsamples = 1\nvalue = [1, 0]\nclass = Low"] ;
217 -> 218 ;
219 [label="gini = 0.175\nsamples = 31\nvalue = [3, 28]\nclass = High"] ;
217 -> 219 ;
220 [label="gini = 0.0\nsamples = 11\nvalue = [0, 11]\nclass = High"] ;
216 -> 220 ;
221 [label="review_count <= 3.5\ngini = 0.272\nsamples = 1090\nvalue = [177, 913]\nclass = High"] ;
1 -> 221 ;
222 [label="Alcohol <= 0.5\ngini = 0.355\nsamples = 156\nvalue = [36, 120]\nclass = High"] ;
221 -> 222 ;
223 [label="RestaurantsPriceRange2 <= 3.5\ngini = 0.366\nsamples = 149\nvalue = [36, 113]\nclass = High"] ;
222 -> 223 ;
224 [label="RestaurantsPriceRange2 <= 0.5\ngini = 0.375\nsamples = 144\nvalue = [36, 108]\nclass = High"] ;
223 -> 224 ;
225 [label="is_open <= 0.5\ngini = 0.264\nsamples = 32\nvalue = [5, 27]\nclass = High"] ;
224 -> 225 ;
226 [label="gini = 0.0\nsamples = 2\nvalue = [2, 0]\nclass = Low"] ;
225 -> 226 ;
227 [label="RestaurantsTakeOut <= 0.5\ngini = 0.18\nsamples = 30\nvalue = [3, 27]\nclass = High"] ;
225 -> 227 ;
228 [label="BusinessAcceptsCreditCards <= 0.5\ngini = 0.137\nsamples = 27\nvalue = [2, 25]\nclass = High"] ;
227 -> 228 ;
229 [label="gini = 0.0\nsamples = 10\nvalue = [0, 10]\nclass = High"] ;
228 -> 229 ;
230 [label="GoodForKids <= 0.5\ngini = 0.208\nsamples = 17\nvalue = [2, 15]\nclass = High"] ;
228 -> 230 ;
231 [label="gini = 0.165\nsamples = 11\nvalue = [1, 10]\nclass = High"] ;
230 -> 231 ;
232 [label="gini = 0.278\nsamples = 6\nvalue = [1, 5]\nclass = High"] ;
230 -> 232 ;
233 [label="gini = 0.444\nsamples = 3\nvalue = [1, 2]\nclass = High"] ;
227 -> 233 ;
234 [label="is_open <= 0.5\ngini = 0.4\nsamples = 112\nvalue = [31, 81]\nclass = High"] ;
224 -> 234 ;
235 [label="gini = 0.0\nsamples = 5\nvalue = [0, 5]\nclass = High"] ;
234 -> 235 ;
236 [label="GoodForKids <= 0.5\ngini = 0.412\nsamples = 107\nvalue = [31, 76]\nclass = High"] ;
234 -> 236 ;
237 [label="RestaurantsTakeOut <= 0.5\ngini = 0.392\nsamples = 86\nvalue = [23, 63]\nclass = High"] ;
236 -> 237 ;
238 [label="RestaurantsPriceRange2 <= 1.5\ngini = 0.431\nsamples = 70\nvalue = [22, 48]\nclass = High"] ;
237 -> 238 ;
239 [label="gini = 0.346\nsamples = 18\nvalue = [4, 14]\nclass = High"] ;
238 -> 239 ;
240 [label="gini = 0.453\nsamples = 52\nvalue = [18, 34]\nclass = High"] ;
238 -> 240 ;
241 [label="BusinessAcceptsCreditCards <= 0.5\ngini = 0.117\nsamples = 16\nvalue = [1, 15]\nclass = High"] ;
237 -> 241 ;
242 [label="gini = 0.0\nsamples = 1\nvalue = [1, 0]\nclass = Low"] ;
241 -> 242 ;
243 [label="gini = 0.0\nsamples = 15\nvalue = [0, 15]\nclass = High"] ;
241 -> 243 ;
244 [label="RestaurantsTakeOut <= 0.5\ngini = 0.472\nsamples = 21\nvalue = [8, 13]\nclass = High"] ;
236 -> 244 ;
245 [label="RestaurantsPriceRange2 <= 2.5\ngini = 0.32\nsamples = 5\nvalue = [1, 4]\nclass = High"] ;
244 -> 245 ;
246 [label="gini = 0.375\nsamples = 4\nvalue = [1, 3]\nclass = High"] ;
245 -> 246 ;
247 [label="gini = 0.0\nsamples = 1\nvalue = [0, 1]\nclass = High"] ;
245 -> 247 ;
248 [label="NoiseLevel <= 0.5\ngini = 0.492\nsamples = 16\nvalue = [7, 9]\nclass = High"] ;
244 -> 248 ;
249 [label="gini = 0.498\nsamples = 15\nvalue = [7, 8]\nclass = High"] ;
248 -> 249 ;
250 [label="gini = 0.0\nsamples = 1\nvalue = [0, 1]\nclass = High"] ;
248 -> 250 ;
251 [label="gini = 0.0\nsamples = 5\nvalue = [0, 5]\nclass = High"] ;
223 -> 251 ;
252 [label="gini = 0.0\nsamples = 7\nvalue = [0, 7]\nclass = High"] ;
222 -> 252 ;
253 [label="RestaurantsPriceRange2 <= 0.5\ngini = 0.256\nsamples = 934\nvalue = [141, 793]\nclass = High"] ;
221 -> 253 ;
254 [label="review_count <= 28.5\ngini = 0.138\nsamples = 94\nvalue = [7, 87]\nclass = High"] ;
253 -> 254 ;
255 [label="review_count <= 9.5\ngini = 0.122\nsamples = 92\nvalue = [6, 86]\nclass = High"] ;
254 -> 255 ;
256 [label="review_count <= 8.5\ngini = 0.157\nsamples = 70\nvalue = [6, 64]\nclass = High"] ;
255 -> 256 ;
257 [label="review_count <= 7.5\ngini = 0.126\nsamples = 59\nvalue = [4, 55]\nclass = High"] ;
256 -> 257 ;
258 [label="review_count <= 4.5\ngini = 0.147\nsamples = 50\nvalue = [4, 46]\nclass = High"] ;
257 -> 258 ;
259 [label="BusinessAcceptsCreditCards <= 0.5\ngini = 0.198\nsamples = 18\nvalue = [2, 16]\nclass = High"] ;
258 -> 259 ;
260 [label="gini = 0.0\nsamples = 7\nvalue = [0, 7]\nclass = High"] ;
259 -> 260 ;
261 [label="gini = 0.298\nsamples = 11\nvalue = [2, 9]\nclass = High"] ;
259 -> 261 ;
262 [label="BusinessAcceptsCreditCards <= 0.5\ngini = 0.117\nsamples = 32\nvalue = [2, 30]\nclass = High"] ;
258 -> 262 ;
263 [label="gini = 0.245\nsamples = 14\nvalue = [2, 12]\nclass = High"] ;
262 -> 263 ;
264 [label="gini = 0.0\nsamples = 18\nvalue = [0, 18]\nclass = High"] ;
262 -> 264 ;
265 [label="gini = 0.0\nsamples = 9\nvalue = [0, 9]\nclass = High"] ;
257 -> 265 ;
266 [label="BusinessAcceptsCreditCards <= 0.5\ngini = 0.298\nsamples = 11\nvalue = [2, 9]\nclass = High"] ;
256 -> 266 ;
267 [label="gini = 0.0\nsamples = 5\nvalue = [0, 5]\nclass = High"] ;
266 -> 267 ;
268 [label="GoodForKids <= 0.5\ngini = 0.444\nsamples = 6\nvalue = [2, 4]\nclass = High"] ;
266 -> 268 ;
269 [label="gini = 0.0\nsamples = 2\nvalue = [0, 2]\nclass = High"] ;
268 -> 269 ;
270 [label="RestaurantsTakeOut <= 0.5\ngini = 0.5\nsamples = 4\nvalue = [2, 2]\nclass = Low"] ;
268 -> 270 ;
271 [label="gini = 0.444\nsamples = 3\nvalue = [2, 1]\nclass = Low"] ;
270 -> 271 ;
272 [label="gini = 0.0\nsamples = 1\nvalue = [0, 1]\nclass = High"] ;
270 -> 272 ;
273 [label="gini = 0.0\nsamples = 22\nvalue = [0, 22]\nclass = High"] ;
255 -> 273 ;
274 [label="review_count <= 36.5\ngini = 0.5\nsamples = 2\nvalue = [1, 1]\nclass = Low"] ;
254 -> 274 ;
275 [label="gini = 0.0\nsamples = 1\nvalue = [1, 0]\nclass = Low"] ;
274 -> 275 ;
276 [label="gini = 0.0\nsamples = 1\nvalue = [0, 1]\nclass = High"] ;
274 -> 276 ;
277 [label="GoodForKids <= 0.5\ngini = 0.268\nsamples = 840\nvalue = [134, 706]\nclass = High"] ;
253 -> 277 ;
278 [label="Alcohol <= 0.5\ngini = 0.233\nsamples = 415\nvalue = [56, 359]\nclass = High"] ;
277 -> 278 ;
279 [label="review_count <= 19.5\ngini = 0.265\nsamples = 330\nvalue = [52, 278]\nclass = High"] ;
278 -> 279 ;
280 [label="WiFi <= 0.5\ngini = 0.255\nsamples = 320\nvalue = [48, 272]\nclass = High"] ;
279 -> 280 ;
281 [label="RestaurantsTakeOut <= 0.5\ngini = 0.237\nsamples = 284\nvalue = [39, 245]\nclass = High"] ;
280 -> 281 ;
282 [label="review_count <= 8.5\ngini = 0.272\nsamples = 203\nvalue = [33, 170]\nclass = High"] ;
281 -> 282 ;
283 [label="gini = 0.304\nsamples = 155\nvalue = [29, 126]\nclass = High"] ;
282 -> 283 ;
284 [label="gini = 0.153\nsamples = 48\nvalue = [4, 44]\nclass = High"] ;
282 -> 284 ;
285 [label="review_count <= 7.5\ngini = 0.137\nsamples = 81\nvalue = [6, 75]\nclass = High"] ;
281 -> 285 ;
286 [label="gini = 0.053\nsamples = 37\nvalue = [1, 36]\nclass = High"] ;
285 -> 286 ;
287 [label="gini = 0.201\nsamples = 44\nvalue = [5, 39]\nclass = High"] ;
285 -> 287 ;
288 [label="RestaurantsTakeOut <= 0.5\ngini = 0.375\nsamples = 36\nvalue = [9, 27]\nclass = High"] ;
280 -> 288 ;
289 [label="RestaurantsPriceRange2 <= 1.5\ngini = 0.469\nsamples = 8\nvalue = [3, 5]\nclass = High"] ;
288 -> 289 ;
290 [label="gini = 0.278\nsamples = 6\nvalue = [1, 5]\nclass = High"] ;
289 -> 290 ;
291 [label="gini = 0.0\nsamples = 2\nvalue = [2, 0]\nclass = Low"] ;
289 -> 291 ;
292 [label="RestaurantsPriceRange2 <= 1.5\ngini = 0.337\nsamples = 28\nvalue = [6, 22]\nclass = High"] ;
288 -> 292 ;
293 [label="gini = 0.43\nsamples = 16\nvalue = [5, 11]\nclass = High"] ;
292 -> 293 ;
294 [label="gini = 0.153\nsamples = 12\nvalue = [1, 11]\nclass = High"] ;
292 -> 294 ;
295 [label="review_count <= 20.5\ngini = 0.48\nsamples = 10\nvalue = [4, 6]\nclass = High"] ;
279 -> 295 ;
296 [label="gini = 0.0\nsamples = 2\nvalue = [2, 0]\nclass = Low"] ;
295 -> 296 ;
297 [label="RestaurantsTakeOut <= 0.5\ngini = 0.375\nsamples = 8\nvalue = [2, 6]\nclass = High"] ;
295 -> 297 ;
298 [label="RestaurantsPriceRange2 <= 2.5\ngini = 0.48\nsamples = 5\nvalue = [2, 3]\nclass = High"] ;
297 -> 298 ;
299 [label="gini = 0.444\nsamples = 3\nvalue = [2, 1]\nclass = Low"] ;
298 -> 299 ;
300 [label="gini = 0.0\nsamples = 2\nvalue = [0, 2]\nclass = High"] ;
298 -> 300 ;
301 [label="gini = 0.0\nsamples = 3\nvalue = [0, 3]\nclass = High"] ;
297 -> 301 ;
302 [label="NoiseLevel <= 0.5\ngini = 0.09\nsamples = 85\nvalue = [4, 81]\nclass = High"] ;
278 -> 302 ;
303 [label="review_count <= 6.5\ngini = 0.034\nsamples = 58\nvalue = [1, 57]\nclass = High"] ;
302 -> 303 ;
304 [label="RestaurantsPriceRange2 <= 1.5\ngini = 0.165\nsamples = 11\nvalue = [1, 10]\nclass = High"] ;
303 -> 304 ;
305 [label="RestaurantsTakeOut <= 0.5\ngini = 0.375\nsamples = 4\nvalue = [1, 3]\nclass = High"] ;
304 -> 305 ;
306 [label="gini = 0.0\nsamples = 2\nvalue = [0, 2]\nclass = High"] ;
305 -> 306 ;
307 [label="gini = 0.5\nsamples = 2\nvalue = [1, 1]\nclass = Low"] ;
305 -> 307 ;
308 [label="gini = 0.0\nsamples = 7\nvalue = [0, 7]\nclass = High"] ;
304 -> 308 ;
309 [label="gini = 0.0\nsamples = 47\nvalue = [0, 47]\nclass = High"] ;
303 -> 309 ;
310 [label="RestaurantsTakeOut <= 0.5\ngini = 0.198\nsamples = 27\nvalue = [3, 24]\nclass = High"] ;
302 -> 310 ;
311 [label="review_count <= 12.5\ngini = 0.117\nsamples = 16\nvalue = [1, 15]\nclass = High"] ;
310 -> 311 ;
312 [label="gini = 0.0\nsamples = 11\nvalue = [0, 11]\nclass = High"] ;
311 -> 312 ;
313 [label="review_count <= 14.5\ngini = 0.32\nsamples = 5\nvalue = [1, 4]\nclass = High"] ;
311 -> 313 ;
314 [label="gini = 0.5\nsamples = 2\nvalue = [1, 1]\nclass = Low"] ;
313 -> 314 ;
315 [label="gini = 0.0\nsamples = 3\nvalue = [0, 3]\nclass = High"] ;
313 -> 315 ;
316 [label="review_count <= 8.0\ngini = 0.298\nsamples = 11\nvalue = [2, 9]\nclass = High"] ;
310 -> 316 ;
317 [label="gini = 0.0\nsamples = 1\nvalue = [1, 0]\nclass = Low"] ;
316 -> 317 ;
318 [label="review_count <= 16.0\ngini = 0.18\nsamples = 10\nvalue = [1, 9]\nclass = High"] ;
316 -> 318 ;
319 [label="gini = 0.0\nsamples = 4\nvalue = [0, 4]\nclass = High"] ;
318 -> 319 ;
320 [label="gini = 0.278\nsamples = 6\nvalue = [1, 5]\nclass = High"] ;
318 -> 320 ;
321 [label="review_count <= 236.0\ngini = 0.3\nsamples = 425\nvalue = [78, 347]\nclass = High"] ;
277 -> 321 ;
322 [label="review_count <= 42.5\ngini = 0.297\nsamples = 424\nvalue = [77, 347]\nclass = High"] ;
321 -> 322 ;
323 [label="RestaurantsTakeOut <= 0.5\ngini = 0.308\nsamples = 405\nvalue = [77, 328]\nclass = High"] ;
322 -> 323 ;
324 [label="RestaurantsAttire <= 0.5\ngini = 0.13\nsamples = 43\nvalue = [3, 40]\nclass = High"] ;
323 -> 324 ;
325 [label="review_count <= 10.5\ngini = 0.091\nsamples = 42\nvalue = [2, 40]\nclass = High"] ;
324 -> 325 ;
326 [label="gini = 0.0\nsamples = 31\nvalue = [0, 31]\nclass = High"] ;
325 -> 326 ;
327 [label="gini = 0.298\nsamples = 11\nvalue = [2, 9]\nclass = High"] ;
325 -> 327 ;
328 [label="gini = 0.0\nsamples = 1\nvalue = [1, 0]\nclass = Low"] ;
324 -> 328 ;
329 [label="review_count <= 31.5\ngini = 0.325\nsamples = 362\nvalue = [74, 288]\nclass = High"] ;
323 -> 329 ;
330 [label="is_open <= 0.5\ngini = 0.312\nsamples = 336\nvalue = [65, 271]\nclass = High"] ;
329 -> 330 ;
331 [label="gini = 0.223\nsamples = 47\nvalue = [6, 41]\nclass = High"] ;
330 -> 331 ;
332 [label="gini = 0.325\nsamples = 289\nvalue = [59, 230]\nclass = High"] ;
330 -> 332 ;
333 [label="review_count <= 33.5\ngini = 0.453\nsamples = 26\nvalue = [9, 17]\nclass = High"] ;
329 -> 333 ;
334 [label="gini = 0.444\nsamples = 6\nvalue = [4, 2]\nclass = Low"] ;
333 -> 334 ;
335 [label="gini = 0.375\nsamples = 20\nvalue = [5, 15]\nclass = High"] ;
333 -> 335 ;
336 [label="gini = 0.0\nsamples = 19\nvalue = [0, 19]\nclass = High"] ;
322 -> 336 ;
337 [label="gini = 0.0\nsamples = 1\nvalue = [1, 0]\nclass = Low"] ;
321 -> 337 ;
338 [label="review_count <= 42.5\ngini = 0.209\nsamples = 3309\nvalue = [392, 2917]\nclass = High"] ;
0 -> 338 [labeldistance=2.5, labelangle=-45, headlabel="False"] ;
339 [label="NoiseLevel <= 0.5\ngini = 0.248\nsamples = 2450\nvalue = [355, 2095]\nclass = High"] ;
338 -> 339 ;
340 [label="BikeParking <= 0.5\ngini = 0.236\nsamples = 2293\nvalue = [314, 1979]\nclass = High"] ;
339 -> 340 ;
341 [label="Alcohol <= 0.5\ngini = 0.27\nsamples = 958\nvalue = [154, 804]\nclass = High"] ;
340 -> 341 ;
342 [label="RestaurantsPriceRange2 <= 0.5\ngini = 0.252\nsamples = 696\nvalue = [103, 593]\nclass = High"] ;
341 -> 342 ;
343 [label="review_count <= 3.5\ngini = 0.375\nsamples = 40\nvalue = [10, 30]\nclass = High"] ;
342 -> 343 ;
344 [label="RestaurantsTakeOut <= 0.5\ngini = 0.496\nsamples = 11\nvalue = [6, 5]\nclass = Low"] ;
343 -> 344 ;
345 [label="BusinessAcceptsCreditCards <= 0.5\ngini = 0.494\nsamples = 9\nvalue = [4, 5]\nclass = High"] ;
344 -> 345 ;
346 [label="gini = 0.0\nsamples = 1\nvalue = [1, 0]\nclass = Low"] ;
345 -> 346 ;
347 [label="GoodForKids <= 0.5\ngini = 0.469\nsamples = 8\nvalue = [3, 5]\nclass = High"] ;
345 -> 347 ;
348 [label="gini = 0.49\nsamples = 7\nvalue = [3, 4]\nclass = High"] ;
347 -> 348 ;
349 [label="gini = 0.0\nsamples = 1\nvalue = [0, 1]\nclass = High"] ;
347 -> 349 ;
350 [label="gini = 0.0\nsamples = 2\nvalue = [2, 0]\nclass = Low"] ;
344 -> 350 ;
351 [label="GoodForKids <= 0.5\ngini = 0.238\nsamples = 29\nvalue = [4, 25]\nclass = High"] ;
343 -> 351 ;
352 [label="review_count <= 6.5\ngini = 0.32\nsamples = 20\nvalue = [4, 16]\nclass = High"] ;
351 -> 352 ;
353 [label="review_count <= 4.5\ngini = 0.219\nsamples = 16\nvalue = [2, 14]\nclass = High"] ;
352 -> 353 ;
354 [label="gini = 0.346\nsamples = 9\nvalue = [2, 7]\nclass = High"] ;
353 -> 354 ;
355 [label="gini = 0.0\nsamples = 7\nvalue = [0, 7]\nclass = High"] ;
353 -> 355 ;
356 [label="BusinessAcceptsCreditCards <= 0.5\ngini = 0.5\nsamples = 4\nvalue = [2, 2]\nclass = Low"] ;
352 -> 356 ;
357 [label="gini = 0.0\nsamples = 1\nvalue = [0, 1]\nclass = High"] ;
356 -> 357 ;
358 [label="gini = 0.444\nsamples = 3\nvalue = [2, 1]\nclass = Low"] ;
356 -> 358 ;
359 [label="gini = 0.0\nsamples = 9\nvalue = [0, 9]\nclass = High"] ;
351 -> 359 ;
360 [label="review_count <= 39.5\ngini = 0.243\nsamples = 656\nvalue = [93, 563]\nclass = High"] ;
342 -> 360 ;
361 [label="is_open <= 0.5\ngini = 0.24\nsamples = 651\nvalue = [91, 560]\nclass = High"] ;
360 -> 361 ;
362 [label="review_count <= 7.5\ngini = 0.182\nsamples = 148\nvalue = [15, 133]\nclass = High"] ;
361 -> 362 ;
363 [label="RestaurantsPriceRange2 <= 2.5\ngini = 0.108\nsamples = 70\nvalue = [4, 66]\nclass = High"] ;
362 -> 363 ;
364 [label="gini = 0.089\nsamples = 64\nvalue = [3, 61]\nclass = High"] ;
363 -> 364 ;
365 [label="gini = 0.278\nsamples = 6\nvalue = [1, 5]\nclass = High"] ;
363 -> 365 ;
366 [label="review_count <= 9.5\ngini = 0.242\nsamples = 78\nvalue = [11, 67]\nclass = High"] ;
362 -> 366 ;
367 [label="gini = 0.444\nsamples = 18\nvalue = [6, 12]\nclass = High"] ;
366 -> 367 ;
368 [label="gini = 0.153\nsamples = 60\nvalue = [5, 55]\nclass = High"] ;
366 -> 368 ;
369 [label="GoodForKids <= 0.5\ngini = 0.257\nsamples = 503\nvalue = [76, 427]\nclass = High"] ;
361 -> 369 ;
370 [label="RestaurantsPriceRange2 <= 1.5\ngini = 0.283\nsamples = 351\nvalue = [60, 291]\nclass = High"] ;
369 -> 370 ;
371 [label="gini = 0.176\nsamples = 82\nvalue = [8, 74]\nclass = High"] ;
370 -> 371 ;
372 [label="gini = 0.312\nsamples = 269\nvalue = [52, 217]\nclass = High"] ;
370 -> 372 ;
373 [label="RestaurantsPriceRange2 <= 1.5\ngini = 0.188\nsamples = 152\nvalue = [16, 136]\nclass = High"] ;
369 -> 373 ;
374 [label="gini = 0.247\nsamples = 83\nvalue = [12, 71]\nclass = High"] ;
373 -> 374 ;
375 [label="gini = 0.109\nsamples = 69\nvalue = [4, 65]\nclass = High"] ;
373 -> 375 ;
376 [label="GoodForKids <= 0.5\ngini = 0.48\nsamples = 5\nvalue = [2, 3]\nclass = High"] ;
360 -> 376 ;
377 [label="gini = 0.0\nsamples = 1\nvalue = [0, 1]\nclass = High"] ;
376 -> 377 ;
378 [label="review_count <= 41.0\ngini = 0.5\nsamples = 4\nvalue = [2, 2]\nclass = Low"] ;
376 -> 378 ;
379 [label="RestaurantsPriceRange2 <= 1.5\ngini = 0.444\nsamples = 3\nvalue = [1, 2]\nclass = High"] ;
378 -> 379 ;
380 [label="gini = 0.0\nsamples = 1\nvalue = [0, 1]\nclass = High"] ;
379 -> 380 ;
381 [label="gini = 0.5\nsamples = 2\nvalue = [1, 1]\nclass = Low"] ;
379 -> 381 ;
382 [label="gini = 0.0\nsamples = 1\nvalue = [1, 0]\nclass = Low"] ;
378 -> 382 ;
383 [label="GoodForKids <= 0.5\ngini = 0.314\nsamples = 262\nvalue = [51, 211]\nclass = High"] ;
341 -> 383 ;
384 [label="review_count <= 40.0\ngini = 0.21\nsamples = 84\nvalue = [10, 74]\nclass = High"] ;
383 -> 384 ;
385 [label="review_count <= 11.5\ngini = 0.195\nsamples = 82\nvalue = [9, 73]\nclass = High"] ;
384 -> 385 ;
386 [label="review_count <= 9.5\ngini = 0.283\nsamples = 41\nvalue = [7, 34]\nclass = High"] ;
385 -> 386 ;
387 [label="review_count <= 5.5\ngini = 0.202\nsamples = 35\nvalue = [4, 31]\nclass = High"] ;
386 -> 387 ;
388 [label="gini = 0.346\nsamples = 18\nvalue = [4, 14]\nclass = High"] ;
387 -> 388 ;
389 [label="gini = 0.0\nsamples = 17\nvalue = [0, 17]\nclass = High"] ;
387 -> 389 ;
390 [label="is_open <= 0.5\ngini = 0.5\nsamples = 6\nvalue = [3, 3]\nclass = Low"] ;
386 -> 390 ;
391 [label="gini = 0.375\nsamples = 4\nvalue = [3, 1]\nclass = Low"] ;
390 -> 391 ;
392 [label="gini = 0.0\nsamples = 2\nvalue = [0, 2]\nclass = High"] ;
390 -> 392 ;
393 [label="review_count <= 26.5\ngini = 0.093\nsamples = 41\nvalue = [2, 39]\nclass = High"] ;
385 -> 393 ;
394 [label="gini = 0.0\nsamples = 27\nvalue = [0, 27]\nclass = High"] ;
393 -> 394 ;
395 [label="RestaurantsPriceRange2 <= 1.5\ngini = 0.245\nsamples = 14\nvalue = [2, 12]\nclass = High"] ;
393 -> 395 ;
396 [label="gini = 0.0\nsamples = 1\nvalue = [1, 0]\nclass = Low"] ;
395 -> 396 ;
397 [label="gini = 0.142\nsamples = 13\nvalue = [1, 12]\nclass = High"] ;
395 -> 397 ;
398 [label="review_count <= 41.5\ngini = 0.5\nsamples = 2\nvalue = [1, 1]\nclass = Low"] ;
384 -> 398 ;
399 [label="gini = 0.0\nsamples = 1\nvalue = [1, 0]\nclass = Low"] ;
398 -> 399 ;
400 [label="gini = 0.0\nsamples = 1\nvalue = [0, 1]\nclass = High"] ;
398 -> 400 ;
401 [label="is_open <= 0.5\ngini = 0.355\nsamples = 178\nvalue = [41, 137]\nclass = High"] ;
383 -> 401 ;
402 [label="review_count <= 13.5\ngini = 0.408\nsamples = 91\nvalue = [26, 65]\nclass = High"] ;
401 -> 402 ;
403 [label="WiFi <= 0.5\ngini = 0.325\nsamples = 49\nvalue = [10, 39]\nclass = High"] ;
402 -> 403 ;
404 [label="review_count <= 3.5\ngini = 0.234\nsamples = 37\nvalue = [5, 32]\nclass = High"] ;
403 -> 404 ;
405 [label="gini = 0.0\nsamples = 2\nvalue = [2, 0]\nclass = Low"] ;
404 -> 405 ;
406 [label="gini = 0.157\nsamples = 35\nvalue = [3, 32]\nclass = High"] ;
404 -> 406 ;
407 [label="RestaurantsPriceRange2 <= 2.5\ngini = 0.486\nsamples = 12\nvalue = [5, 7]\nclass = High"] ;
403 -> 407 ;
408 [label="gini = 0.42\nsamples = 10\nvalue = [3, 7]\nclass = High"] ;
407 -> 408 ;
409 [label="gini = 0.0\nsamples = 2\nvalue = [2, 0]\nclass = Low"] ;
407 -> 409 ;
410 [label="review_count <= 23.5\ngini = 0.472\nsamples = 42\nvalue = [16, 26]\nclass = High"] ;
402 -> 410 ;
411 [label="review_count <= 14.5\ngini = 0.49\nsamples = 21\nvalue = [12, 9]\nclass = Low"] ;
410 -> 411 ;
412 [label="gini = 0.0\nsamples = 2\nvalue = [2, 0]\nclass = Low"] ;
411 -> 412 ;
413 [label="gini = 0.499\nsamples = 19\nvalue = [10, 9]\nclass = Low"] ;
411 -> 413 ;
414 [label="review_count <= 27.0\ngini = 0.308\nsamples = 21\nvalue = [4, 17]\nclass = High"] ;
410 -> 414 ;
415 [label="gini = 0.444\nsamples = 6\nvalue = [2, 4]\nclass = High"] ;
414 -> 415 ;
416 [label="gini = 0.231\nsamples = 15\nvalue = [2, 13]\nclass = High"] ;
414 -> 416 ;
417 [label="review_count <= 13.5\ngini = 0.285\nsamples = 87\nvalue = [15, 72]\nclass = High"] ;
401 -> 417 ;
418 [label="review_count <= 5.0\ngini = 0.408\nsamples = 14\nvalue = [4, 10]\nclass = High"] ;
417 -> 418 ;
419 [label="gini = 0.0\nsamples = 2\nvalue = [0, 2]\nclass = High"] ;
418 -> 419 ;
420 [label="review_count <= 7.0\ngini = 0.444\nsamples = 12\nvalue = [4, 8]\nclass = High"] ;
418 -> 420 ;
421 [label="gini = 0.0\nsamples = 1\nvalue = [1, 0]\nclass = Low"] ;
420 -> 421 ;
422 [label="gini = 0.397\nsamples = 11\nvalue = [3, 8]\nclass = High"] ;
420 -> 422 ;
423 [label="RestaurantsPriceRange2 <= 1.5\ngini = 0.256\nsamples = 73\nvalue = [11, 62]\nclass = High"] ;
417 -> 423 ;
424 [label="review_count <= 20.0\ngini = 0.117\nsamples = 16\nvalue = [1, 15]\nclass = High"] ;
423 -> 424 ;
425 [label="gini = 0.375\nsamples = 4\nvalue = [1, 3]\nclass = High"] ;
424 -> 425 ;
426 [label="gini = 0.0\nsamples = 12\nvalue = [0, 12]\nclass = High"] ;
424 -> 426 ;
427 [label="review_count <= 25.5\ngini = 0.289\nsamples = 57\nvalue = [10, 47]\nclass = High"] ;
423 -> 427 ;
428 [label="gini = 0.198\nsamples = 18\nvalue = [2, 16]\nclass = High"] ;
427 -> 428 ;
429 [label="gini = 0.326\nsamples = 39\nvalue = [8, 31]\nclass = High"] ;
427 -> 429 ;
430 [label="review_count <= 3.5\ngini = 0.211\nsamples = 1335\nvalue = [160, 1175]\nclass = High"] ;
340 -> 430 ;
431 [label="GoodForKids <= 0.5\ngini = 0.323\nsamples = 79\nvalue = [16, 63]\nclass = High"] ;
430 -> 431 ;
432 [label="WiFi <= 0.5\ngini = 0.285\nsamples = 64\nvalue = [11, 53]\nclass = High"] ;
431 -> 432 ;
433 [label="RestaurantsTakeOut <= 0.5\ngini = 0.274\nsamples = 61\nvalue = [10, 51]\nclass = High"] ;
432 -> 433 ;
434 [label="RestaurantsPriceRange2 <= 1.5\ngini = 0.289\nsamples = 57\nvalue = [10, 47]\nclass = High"] ;
433 -> 434 ;
435 [label="Alcohol <= 0.5\ngini = 0.351\nsamples = 22\nvalue = [5, 17]\nclass = High"] ;
434 -> 435 ;
436 [label="gini = 0.363\nsamples = 21\nvalue = [5, 16]\nclass = High"] ;
435 -> 436 ;
437 [label="gini = 0.0\nsamples = 1\nvalue = [0, 1]\nclass = High"] ;
435 -> 437 ;
438 [label="RestaurantsPriceRange2 <= 2.5\ngini = 0.245\nsamples = 35\nvalue = [5, 30]\nclass = High"] ;
434 -> 438 ;
439 [label="gini = 0.269\nsamples = 25\nvalue = [4, 21]\nclass = High"] ;
438 -> 439 ;
440 [label="gini = 0.18\nsamples = 10\nvalue = [1, 9]\nclass = High"] ;
438 -> 440 ;
441 [label="gini = 0.0\nsamples = 4\nvalue = [0, 4]\nclass = High"] ;
433 -> 441 ;
442 [label="is_open <= 0.5\ngini = 0.444\nsamples = 3\nvalue = [1, 2]\nclass = High"] ;
432 -> 442 ;
443 [label="gini = 0.0\nsamples = 1\nvalue = [1, 0]\nclass = Low"] ;
442 -> 443 ;
444 [label="gini = 0.0\nsamples = 2\nvalue = [0, 2]\nclass = High"] ;
442 -> 444 ;
445 [label="RestaurantsPriceRange2 <= 1.5\ngini = 0.444\nsamples = 15\nvalue = [5, 10]\nclass = High"] ;
431 -> 445 ;
446 [label="RestaurantsTakeOut <= 0.5\ngini = 0.18\nsamples = 10\nvalue = [1, 9]\nclass = High"] ;
445 -> 446 ;
447 [label="gini = 0.0\nsamples = 6\nvalue = [0, 6]\nclass = High"] ;
446 -> 447 ;
448 [label="WiFi <= 0.5\ngini = 0.375\nsamples = 4\nvalue = [1, 3]\nclass = High"] ;
446 -> 448 ;
449 [label="gini = 0.5\nsamples = 2\nvalue = [1, 1]\nclass = Low"] ;
448 -> 449 ;
450 [label="gini = 0.0\nsamples = 2\nvalue = [0, 2]\nclass = High"] ;
448 -> 450 ;
451 [label="RestaurantsPriceRange2 <= 2.5\ngini = 0.32\nsamples = 5\nvalue = [4, 1]\nclass = Low"] ;
445 -> 451 ;
452 [label="gini = 0.0\nsamples = 4\nvalue = [4, 0]\nclass = Low"] ;
451 -> 452 ;
453 [label="gini = 0.0\nsamples = 1\nvalue = [0, 1]\nclass = High"] ;
451 -> 453 ;
454 [label="RestaurantsPriceRange2 <= 3.5\ngini = 0.203\nsamples = 1256\nvalue = [144, 1112]\nclass = High"] ;
430 -> 454 ;
455 [label="RestaurantsTakeOut <= 0.5\ngini = 0.199\nsamples = 1238\nvalue = [139, 1099]\nclass = High"] ;
454 -> 455 ;
456 [label="GoodForKids <= 0.5\ngini = 0.174\nsamples = 572\nvalue = [55, 517]\nclass = High"] ;
455 -> 456 ;
457 [label="review_count <= 38.5\ngini = 0.2\nsamples = 469\nvalue = [53, 416]\nclass = High"] ;
456 -> 457 ;
458 [label="review_count <= 29.5\ngini = 0.195\nsamples = 465\nvalue = [51, 414]\nclass = High"] ;
457 -> 458 ;
459 [label="gini = 0.205\nsamples = 440\nvalue = [51, 389]\nclass = High"] ;
458 -> 459 ;
460 [label="gini = 0.0\nsamples = 25\nvalue = [0, 25]\nclass = High"] ;
458 -> 460 ;
461 [label="review_count <= 40.0\ngini = 0.5\nsamples = 4\nvalue = [2, 2]\nclass = Low"] ;
457 -> 461 ;
462 [label="gini = 0.0\nsamples = 1\nvalue = [1, 0]\nclass = Low"] ;
461 -> 462 ;
463 [label="gini = 0.444\nsamples = 3\nvalue = [1, 2]\nclass = High"] ;
461 -> 463 ;
464 [label="WiFi <= 0.5\ngini = 0.038\nsamples = 103\nvalue = [2, 101]\nclass = High"] ;
456 -> 464 ;
465 [label="review_count <= 7.5\ngini = 0.02\nsamples = 98\nvalue = [1, 97]\nclass = High"] ;
464 -> 465 ;
466 [label="gini = 0.08\nsamples = 24\nvalue = [1, 23]\nclass = High"] ;
465 -> 466 ;
467 [label="gini = 0.0\nsamples = 74\nvalue = [0, 74]\nclass = High"] ;
465 -> 467 ;
468 [label="review_count <= 12.5\ngini = 0.32\nsamples = 5\nvalue = [1, 4]\nclass = High"] ;
464 -> 468 ;
469 [label="gini = 0.5\nsamples = 2\nvalue = [1, 1]\nclass = Low"] ;
468 -> 469 ;
470 [label="gini = 0.0\nsamples = 3\nvalue = [0, 3]\nclass = High"] ;
468 -> 470 ;
471 [label="GoodForKids <= 0.5\ngini = 0.22\nsamples = 666\nvalue = [84, 582]\nclass = High"] ;
455 -> 471 ;
472 [label="RestaurantsPriceRange2 <= 0.5\ngini = 0.151\nsamples = 268\nvalue = [22, 246]\nclass = High"] ;
471 -> 472 ;
473 [label="Alcohol <= 0.5\ngini = 0.5\nsamples = 2\nvalue = [1, 1]\nclass = Low"] ;
472 -> 473 ;
474 [label="gini = 0.0\nsamples = 1\nvalue = [0, 1]\nclass = High"] ;
473 -> 474 ;
475 [label="gini = 0.0\nsamples = 1\nvalue = [1, 0]\nclass = Low"] ;
473 -> 475 ;
476 [label="review_count <= 31.5\ngini = 0.145\nsamples = 266\nvalue = [21, 245]\nclass = High"] ;
472 -> 476 ;
477 [label="gini = 0.165\nsamples = 231\nvalue = [21, 210]\nclass = High"] ;
476 -> 477 ;
478 [label="gini = 0.0\nsamples = 35\nvalue = [0, 35]\nclass = High"] ;
476 -> 478 ;
479 [label="is_open <= 0.5\ngini = 0.263\nsamples = 398\nvalue = [62, 336]\nclass = High"] ;
471 -> 479 ;
480 [label="review_count <= 29.0\ngini = 0.361\nsamples = 55\nvalue = [13, 42]\nclass = High"] ;
479 -> 480 ;
481 [label="gini = 0.444\nsamples = 27\nvalue = [9, 18]\nclass = High"] ;
480 -> 481 ;
482 [label="gini = 0.245\nsamples = 28\nvalue = [4, 24]\nclass = High"] ;
480 -> 482 ;
483 [label="review_count <= 36.5\ngini = 0.245\nsamples = 343\nvalue = [49, 294]\nclass = High"] ;
479 -> 483 ;
484 [label="gini = 0.266\nsamples = 285\nvalue = [45, 240]\nclass = High"] ;
483 -> 484 ;
485 [label="gini = 0.128\nsamples = 58\nvalue = [4, 54]\nclass = High"] ;
483 -> 485 ;
486 [label="RestaurantsTakeOut <= 0.5\ngini = 0.401\nsamples = 18\nvalue = [5, 13]\nclass = High"] ;
454 -> 486 ;
487 [label="is_open <= 0.5\ngini = 0.231\nsamples = 15\nvalue = [2, 13]\nclass = High"] ;
486 -> 487 ;
488 [label="gini = 0.0\nsamples = 1\nvalue = [1, 0]\nclass = Low"] ;
487 -> 488 ;
489 [label="review_count <= 6.0\ngini = 0.133\nsamples = 14\nvalue = [1, 13]\nclass = High"] ;
487 -> 489 ;
490 [label="gini = 0.0\nsamples = 6\nvalue = [0, 6]\nclass = High"] ;
489 -> 490 ;
491 [label="review_count <= 7.5\ngini = 0.219\nsamples = 8\nvalue = [1, 7]\nclass = High"] ;
489 -> 491 ;
492 [label="gini = 0.444\nsamples = 3\nvalue = [1, 2]\nclass = High"] ;
491 -> 492 ;
493 [label="gini = 0.0\nsamples = 5\nvalue = [0, 5]\nclass = High"] ;
491 -> 493 ;
494 [label="gini = 0.0\nsamples = 3\nvalue = [3, 0]\nclass = Low"] ;
486 -> 494 ;
495 [label="BikeParking <= 0.5\ngini = 0.386\nsamples = 157\nvalue = [41, 116]\nclass = High"] ;
339 -> 495 ;
496 [label="review_count <= 35.5\ngini = 0.464\nsamples = 71\nvalue = [26, 45]\nclass = High"] ;
495 -> 496 ;
497 [label="RestaurantsPriceRange2 <= 2.5\ngini = 0.434\nsamples = 66\nvalue = [21, 45]\nclass = High"] ;
496 -> 497 ;
498 [label="RestaurantsTakeOut <= 0.5\ngini = 0.412\nsamples = 62\nvalue = [18, 44]\nclass = High"] ;
497 -> 498 ;
499 [label="is_open <= 0.5\ngini = 0.198\nsamples = 18\nvalue = [2, 16]\nclass = High"] ;
498 -> 499 ;
500 [label="review_count <= 6.0\ngini = 0.346\nsamples = 9\nvalue = [2, 7]\nclass = High"] ;
499 -> 500 ;
501 [label="gini = 0.0\nsamples = 1\nvalue = [1, 0]\nclass = Low"] ;
500 -> 501 ;
502 [label="review_count <= 20.5\ngini = 0.219\nsamples = 8\nvalue = [1, 7]\nclass = High"] ;
500 -> 502 ;
503 [label="gini = 0.0\nsamples = 6\nvalue = [0, 6]\nclass = High"] ;
502 -> 503 ;
504 [label="gini = 0.5\nsamples = 2\nvalue = [1, 1]\nclass = Low"] ;
502 -> 504 ;
505 [label="gini = 0.0\nsamples = 9\nvalue = [0, 9]\nclass = High"] ;
499 -> 505 ;
506 [label="WiFi <= 0.5\ngini = 0.463\nsamples = 44\nvalue = [16, 28]\nclass = High"] ;
498 -> 506 ;
507 [label="review_count <= 21.5\ngini = 0.499\nsamples = 23\nvalue = [12, 11]\nclass = Low"] ;
506 -> 507 ;
508 [label="RestaurantsPriceRange2 <= 1.5\ngini = 0.48\nsamples = 15\nvalue = [6, 9]\nclass = High"] ;
507 -> 508 ;
509 [label="gini = 0.408\nsamples = 7\nvalue = [5, 2]\nclass = Low"] ;
508 -> 509 ;
510 [label="gini = 0.219\nsamples = 8\nvalue = [1, 7]\nclass = High"] ;
508 -> 510 ;
511 [label="RestaurantsPriceRange2 <= 1.5\ngini = 0.375\nsamples = 8\nvalue = [6, 2]\nclass = Low"] ;
507 -> 511 ;
512 [label="gini = 0.5\nsamples = 4\nvalue = [2, 2]\nclass = Low"] ;
511 -> 512 ;
513 [label="gini = 0.0\nsamples = 4\nvalue = [4, 0]\nclass = Low"] ;
511 -> 513 ;
514 [label="RestaurantsPriceRange2 <= 1.5\ngini = 0.308\nsamples = 21\nvalue = [4, 17]\nclass = High"] ;
506 -> 514 ;
515 [label="review_count <= 7.5\ngini = 0.444\nsamples = 9\nvalue = [3, 6]\nclass = High"] ;
514 -> 515 ;
516 [label="gini = 0.0\nsamples = 1\nvalue = [1, 0]\nclass = Low"] ;
515 -> 516 ;
517 [label="gini = 0.375\nsamples = 8\nvalue = [2, 6]\nclass = High"] ;
515 -> 517 ;
518 [label="review_count <= 16.5\ngini = 0.153\nsamples = 12\nvalue = [1, 11]\nclass = High"] ;
514 -> 518 ;
519 [label="gini = 0.444\nsamples = 3\nvalue = [1, 2]\nclass = High"] ;
518 -> 519 ;
520 [label="gini = 0.0\nsamples = 9\nvalue = [0, 9]\nclass = High"] ;
518 -> 520 ;
521 [label="RestaurantsTakeOut <= 0.5\ngini = 0.375\nsamples = 4\nvalue = [3, 1]\nclass = Low"] ;
497 -> 521 ;
522 [label="gini = 0.0\nsamples = 3\nvalue = [3, 0]\nclass = Low"] ;
521 -> 522 ;
523 [label="gini = 0.0\nsamples = 1\nvalue = [0, 1]\nclass = High"] ;
521 -> 523 ;
524 [label="gini = 0.0\nsamples = 5\nvalue = [5, 0]\nclass = Low"] ;
496 -> 524 ;
525 [label="Alcohol <= 0.5\ngini = 0.288\nsamples = 86\nvalue = [15, 71]\nclass = High"] ;
495 -> 525 ;
526 [label="WiFi <= 0.5\ngini = 0.397\nsamples = 22\nvalue = [6, 16]\nclass = High"] ;
525 -> 526 ;
527 [label="GoodForKids <= 0.5\ngini = 0.219\nsamples = 16\nvalue = [2, 14]\nclass = High"] ;
526 -> 527 ;
528 [label="gini = 0.0\nsamples = 1\nvalue = [1, 0]\nclass = Low"] ;
527 -> 528 ;
529 [label="review_count <= 29.0\ngini = 0.124\nsamples = 15\nvalue = [1, 14]\nclass = High"] ;
527 -> 529 ;
530 [label="gini = 0.0\nsamples = 10\nvalue = [0, 10]\nclass = High"] ;
529 -> 530 ;
531 [label="review_count <= 31.5\ngini = 0.32\nsamples = 5\nvalue = [1, 4]\nclass = High"] ;
529 -> 531 ;
532 [label="gini = 0.0\nsamples = 1\nvalue = [1, 0]\nclass = Low"] ;
531 -> 532 ;
533 [label="gini = 0.0\nsamples = 4\nvalue = [0, 4]\nclass = High"] ;
531 -> 533 ;
534 [label="is_open <= 0.5\ngini = 0.444\nsamples = 6\nvalue = [4, 2]\nclass = Low"] ;
526 -> 534 ;
535 [label="gini = 0.0\nsamples = 1\nvalue = [0, 1]\nclass = High"] ;
534 -> 535 ;
536 [label="RestaurantsPriceRange2 <= 1.5\ngini = 0.32\nsamples = 5\nvalue = [4, 1]\nclass = Low"] ;
534 -> 536 ;
537 [label="gini = 0.0\nsamples = 3\nvalue = [3, 0]\nclass = Low"] ;
536 -> 537 ;
538 [label="review_count <= 19.5\ngini = 0.5\nsamples = 2\nvalue = [1, 1]\nclass = Low"] ;
536 -> 538 ;
539 [label="gini = 0.0\nsamples = 1\nvalue = [0, 1]\nclass = High"] ;
538 -> 539 ;
540 [label="gini = 0.0\nsamples = 1\nvalue = [1, 0]\nclass = Low"] ;
538 -> 540 ;
541 [label="review_count <= 35.5\ngini = 0.242\nsamples = 64\nvalue = [9, 55]\nclass = High"] ;
525 -> 541 ;
542 [label="GoodForKids <= 0.5\ngini = 0.177\nsamples = 51\nvalue = [5, 46]\nclass = High"] ;
541 -> 542 ;
543 [label="review_count <= 11.5\ngini = 0.251\nsamples = 34\nvalue = [5, 29]\nclass = High"] ;
542 -> 543 ;
544 [label="gini = 0.0\nsamples = 7\nvalue = [0, 7]\nclass = High"] ;
543 -> 544 ;
545 [label="review_count <= 27.5\ngini = 0.302\nsamples = 27\nvalue = [5, 22]\nclass = High"] ;
543 -> 545 ;
546 [label="review_count <= 26.5\ngini = 0.351\nsamples = 22\nvalue = [5, 17]\nclass = High"] ;
545 -> 546 ;
547 [label="gini = 0.308\nsamples = 21\nvalue = [4, 17]\nclass = High"] ;
546 -> 547 ;
548 [label="gini = 0.0\nsamples = 1\nvalue = [1, 0]\nclass = Low"] ;
546 -> 548 ;
549 [label="gini = 0.0\nsamples = 5\nvalue = [0, 5]\nclass = High"] ;
545 -> 549 ;
550 [label="gini = 0.0\nsamples = 17\nvalue = [0, 17]\nclass = High"] ;
542 -> 550 ;
551 [label="GoodForKids <= 0.5\ngini = 0.426\nsamples = 13\nvalue = [4, 9]\nclass = High"] ;
541 -> 551 ;
552 [label="review_count <= 37.5\ngini = 0.278\nsamples = 6\nvalue = [1, 5]\nclass = High"] ;
551 -> 552 ;
553 [label="gini = 0.0\nsamples = 1\nvalue = [1, 0]\nclass = Low"] ;
552 -> 553 ;
554 [label="gini = 0.0\nsamples = 5\nvalue = [0, 5]\nclass = High"] ;
552 -> 554 ;
555 [label="review_count <= 38.0\ngini = 0.49\nsamples = 7\nvalue = [3, 4]\nclass = High"] ;
551 -> 555 ;
556 [label="gini = 0.0\nsamples = 2\nvalue = [0, 2]\nclass = High"] ;
555 -> 556 ;
557 [label="WiFi <= 0.5\ngini = 0.48\nsamples = 5\nvalue = [3, 2]\nclass = Low"] ;
555 -> 557 ;
558 [label="gini = 0.0\nsamples = 1\nvalue = [0, 1]\nclass = High"] ;
557 -> 558 ;
559 [label="review_count <= 40.5\ngini = 0.375\nsamples = 4\nvalue = [3, 1]\nclass = Low"] ;
557 -> 559 ;
560 [label="gini = 0.0\nsamples = 2\nvalue = [2, 0]\nclass = Low"] ;
559 -> 560 ;
561 [label="gini = 0.5\nsamples = 2\nvalue = [1, 1]\nclass = Low"] ;
559 -> 561 ;
562 [label="NoiseLevel <= 0.5\ngini = 0.082\nsamples = 859\nvalue = [37, 822]\nclass = High"] ;
338 -> 562 ;
563 [label="review_count <= 96.5\ngini = 0.057\nsamples = 782\nvalue = [23, 759]\nclass = High"] ;
562 -> 563 ;
564 [label="review_count <= 91.5\ngini = 0.078\nsamples = 539\nvalue = [22, 517]\nclass = High"] ;
563 -> 564 ;
565 [label="WiFi <= 0.5\ngini = 0.07\nsamples = 521\nvalue = [19, 502]\nclass = High"] ;
564 -> 565 ;
566 [label="is_open <= 0.5\ngini = 0.1\nsamples = 284\nvalue = [15, 269]\nclass = High"] ;
565 -> 566 ;
567 [label="RestaurantsPriceRange2 <= 2.5\ngini = 0.238\nsamples = 29\nvalue = [4, 25]\nclass = High"] ;
566 -> 567 ;
568 [label="Alcohol <= 0.5\ngini = 0.198\nsamples = 27\nvalue = [3, 24]\nclass = High"] ;
567 -> 568 ;
569 [label="gini = 0.0\nsamples = 8\nvalue = [0, 8]\nclass = High"] ;
568 -> 569 ;
570 [label="review_count <= 47.5\ngini = 0.266\nsamples = 19\nvalue = [3, 16]\nclass = High"] ;
568 -> 570 ;
571 [label="gini = 0.0\nsamples = 3\nvalue = [0, 3]\nclass = High"] ;
570 -> 571 ;
572 [label="gini = 0.305\nsamples = 16\nvalue = [3, 13]\nclass = High"] ;
570 -> 572 ;
573 [label="review_count <= 67.0\ngini = 0.5\nsamples = 2\nvalue = [1, 1]\nclass = Low"] ;
567 -> 573 ;
574 [label="gini = 0.0\nsamples = 1\nvalue = [0, 1]\nclass = High"] ;
573 -> 574 ;
575 [label="gini = 0.0\nsamples = 1\nvalue = [1, 0]\nclass = Low"] ;
573 -> 575 ;
576 [label="review_count <= 53.5\ngini = 0.083\nsamples = 255\nvalue = [11, 244]\nclass = High"] ;
566 -> 576 ;
577 [label="review_count <= 45.5\ngini = 0.137\nsamples = 95\nvalue = [7, 88]\nclass = High"] ;
576 -> 577 ;
578 [label="gini = 0.0\nsamples = 37\nvalue = [0, 37]\nclass = High"] ;
577 -> 578 ;
579 [label="BikeParking <= 0.5\ngini = 0.212\nsamples = 58\nvalue = [7, 51]\nclass = High"] ;
577 -> 579 ;
580 [label="gini = 0.0\nsamples = 12\nvalue = [0, 12]\nclass = High"] ;
579 -> 580 ;
581 [label="gini = 0.258\nsamples = 46\nvalue = [7, 39]\nclass = High"] ;
579 -> 581 ;
582 [label="RestaurantsTakeOut <= 0.5\ngini = 0.049\nsamples = 160\nvalue = [4, 156]\nclass = High"] ;
576 -> 582 ;
583 [label="BikeParking <= 0.5\ngini = 0.291\nsamples = 17\nvalue = [3, 14]\nclass = High"] ;
582 -> 583 ;
584 [label="gini = 0.0\nsamples = 1\nvalue = [1, 0]\nclass = Low"] ;
583 -> 584 ;
585 [label="gini = 0.219\nsamples = 16\nvalue = [2, 14]\nclass = High"] ;
583 -> 585 ;
586 [label="RestaurantsPriceRange2 <= 2.5\ngini = 0.014\nsamples = 143\nvalue = [1, 142]\nclass = High"] ;
582 -> 586 ;
587 [label="gini = 0.0\nsamples = 130\nvalue = [0, 130]\nclass = High"] ;
586 -> 587 ;
588 [label="gini = 0.142\nsamples = 13\nvalue = [1, 12]\nclass = High"] ;
586 -> 588 ;
589 [label="review_count <= 43.5\ngini = 0.033\nsamples = 237\nvalue = [4, 233]\nclass = High"] ;
565 -> 589 ;
590 [label="BikeParking <= 0.5\ngini = 0.32\nsamples = 5\nvalue = [1, 4]\nclass = High"] ;
589 -> 590 ;
591 [label="gini = 0.0\nsamples = 2\nvalue = [0, 2]\nclass = High"] ;
590 -> 591 ;
592 [label="Alcohol <= 0.5\ngini = 0.444\nsamples = 3\nvalue = [1, 2]\nclass = High"] ;
590 -> 592 ;
593 [label="gini = 0.0\nsamples = 1\nvalue = [0, 1]\nclass = High"] ;
592 -> 593 ;
594 [label="gini = 0.5\nsamples = 2\nvalue = [1, 1]\nclass = Low"] ;
592 -> 594 ;
595 [label="review_count <= 86.5\ngini = 0.026\nsamples = 232\nvalue = [3, 229]\nclass = High"] ;
589 -> 595 ;
596 [label="review_count <= 61.5\ngini = 0.018\nsamples = 216\nvalue = [2, 214]\nclass = High"] ;
595 -> 596 ;
597 [label="review_count <= 60.5\ngini = 0.036\nsamples = 109\nvalue = [2, 107]\nclass = High"] ;
596 -> 597 ;
598 [label="gini = 0.019\nsamples = 107\nvalue = [1, 106]\nclass = High"] ;
597 -> 598 ;
599 [label="gini = 0.5\nsamples = 2\nvalue = [1, 1]\nclass = Low"] ;
597 -> 599 ;
600 [label="gini = 0.0\nsamples = 107\nvalue = [0, 107]\nclass = High"] ;
596 -> 600 ;
601 [label="is_open <= 0.5\ngini = 0.117\nsamples = 16\nvalue = [1, 15]\nclass = High"] ;
595 -> 601 ;
602 [label="review_count <= 87.5\ngini = 0.375\nsamples = 4\nvalue = [1, 3]\nclass = High"] ;
601 -> 602 ;
603 [label="gini = 0.0\nsamples = 1\nvalue = [1, 0]\nclass = Low"] ;
602 -> 603 ;
604 [label="gini = 0.0\nsamples = 3\nvalue = [0, 3]\nclass = High"] ;
602 -> 604 ;
605 [label="gini = 0.0\nsamples = 12\nvalue = [0, 12]\nclass = High"] ;
601 -> 605 ;
606 [label="review_count <= 92.5\ngini = 0.278\nsamples = 18\nvalue = [3, 15]\nclass = High"] ;
564 -> 606 ;
607 [label="gini = 0.0\nsamples = 1\nvalue = [1, 0]\nclass = Low"] ;
606 -> 607 ;
608 [label="GoodForKids <= 0.5\ngini = 0.208\nsamples = 17\nvalue = [2, 15]\nclass = High"] ;
606 -> 608 ;
609 [label="review_count <= 94.5\ngini = 0.408\nsamples = 7\nvalue = [2, 5]\nclass = High"] ;
608 -> 609 ;
610 [label="gini = 0.0\nsamples = 1\nvalue = [1, 0]\nclass = Low"] ;
609 -> 610 ;
611 [label="RestaurantsTakeOut <= 0.5\ngini = 0.278\nsamples = 6\nvalue = [1, 5]\nclass = High"] ;
609 -> 611 ;
612 [label="gini = 0.0\nsamples = 3\nvalue = [0, 3]\nclass = High"] ;
611 -> 612 ;
613 [label="WiFi <= 0.5\ngini = 0.444\nsamples = 3\nvalue = [1, 2]\nclass = High"] ;
611 -> 613 ;
614 [label="gini = 0.0\nsamples = 1\nvalue = [1, 0]\nclass = Low"] ;
613 -> 614 ;
615 [label="gini = 0.0\nsamples = 2\nvalue = [0, 2]\nclass = High"] ;
613 -> 615 ;
616 [label="gini = 0.0\nsamples = 10\nvalue = [0, 10]\nclass = High"] ;
608 -> 616 ;
617 [label="is_open <= 0.5\ngini = 0.008\nsamples = 243\nvalue = [1, 242]\nclass = High"] ;
563 -> 617 ;
618 [label="review_count <= 130.0\ngini = 0.153\nsamples = 12\nvalue = [1, 11]\nclass = High"] ;
617 -> 618 ;
619 [label="gini = 0.0\nsamples = 7\nvalue = [0, 7]\nclass = High"] ;
618 -> 619 ;
620 [label="review_count <= 137.5\ngini = 0.32\nsamples = 5\nvalue = [1, 4]\nclass = High"] ;
618 -> 620 ;
621 [label="gini = 0.0\nsamples = 1\nvalue = [1, 0]\nclass = Low"] ;
620 -> 621 ;
622 [label="gini = 0.0\nsamples = 4\nvalue = [0, 4]\nclass = High"] ;
620 -> 622 ;
623 [label="gini = 0.0\nsamples = 231\nvalue = [0, 231]\nclass = High"] ;
617 -> 623 ;
624 [label="review_count <= 58.5\ngini = 0.298\nsamples = 77\nvalue = [14, 63]\nclass = High"] ;
562 -> 624 ;
625 [label="review_count <= 50.0\ngini = 0.444\nsamples = 21\nvalue = [7, 14]\nclass = High"] ;
624 -> 625 ;
626 [label="Alcohol <= 0.5\ngini = 0.26\nsamples = 13\nvalue = [2, 11]\nclass = High"] ;
625 -> 626 ;
627 [label="gini = 0.0\nsamples = 1\nvalue = [1, 0]\nclass = Low"] ;
626 -> 627 ;
628 [label="GoodForKids <= 0.5\ngini = 0.153\nsamples = 12\nvalue = [1, 11]\nclass = High"] ;
626 -> 628 ;
629 [label="RestaurantsTakeOut <= 0.5\ngini = 0.278\nsamples = 6\nvalue = [1, 5]\nclass = High"] ;
628 -> 629 ;
630 [label="gini = 0.0\nsamples = 3\nvalue = [0, 3]\nclass = High"] ;
629 -> 630 ;
631 [label="RestaurantsPriceRange2 <= 1.5\ngini = 0.444\nsamples = 3\nvalue = [1, 2]\nclass = High"] ;
629 -> 631 ;
632 [label="gini = 0.0\nsamples = 2\nvalue = [0, 2]\nclass = High"] ;
631 -> 632 ;
633 [label="gini = 0.0\nsamples = 1\nvalue = [1, 0]\nclass = Low"] ;
631 -> 633 ;
634 [label="gini = 0.0\nsamples = 6\nvalue = [0, 6]\nclass = High"] ;
628 -> 634 ;
635 [label="Alcohol <= 0.5\ngini = 0.469\nsamples = 8\nvalue = [5, 3]\nclass = Low"] ;
625 -> 635 ;
636 [label="gini = 0.0\nsamples = 1\nvalue = [0, 1]\nclass = High"] ;
635 -> 636 ;
637 [label="WiFi <= 0.5\ngini = 0.408\nsamples = 7\nvalue = [5, 2]\nclass = Low"] ;
635 -> 637 ;
638 [label="gini = 0.0\nsamples = 4\nvalue = [4, 0]\nclass = Low"] ;
637 -> 638 ;
639 [label="RestaurantsPriceRange2 <= 1.5\ngini = 0.444\nsamples = 3\nvalue = [1, 2]\nclass = High"] ;
637 -> 639 ;
640 [label="gini = 0.0\nsamples = 1\nvalue = [0, 1]\nclass = High"] ;
639 -> 640 ;
641 [label="gini = 0.5\nsamples = 2\nvalue = [1, 1]\nclass = Low"] ;
639 -> 641 ;
642 [label="review_count <= 102.0\ngini = 0.219\nsamples = 56\nvalue = [7, 49]\nclass = High"] ;
624 -> 642 ;
643 [label="review_count <= 100.5\ngini = 0.311\nsamples = 26\nvalue = [5, 21]\nclass = High"] ;
642 -> 643 ;
644 [label="WiFi <= 0.5\ngini = 0.269\nsamples = 25\nvalue = [4, 21]\nclass = High"] ;
643 -> 644 ;
645 [label="gini = 0.0\nsamples = 10\nvalue = [0, 10]\nclass = High"] ;
644 -> 645 ;
646 [label="review_count <= 75.5\ngini = 0.391\nsamples = 15\nvalue = [4, 11]\nclass = High"] ;
644 -> 646 ;
647 [label="BikeParking <= 0.5\ngini = 0.245\nsamples = 7\nvalue = [1, 6]\nclass = High"] ;
646 -> 647 ;
648 [label="gini = 0.0\nsamples = 1\nvalue = [1, 0]\nclass = Low"] ;
647 -> 648 ;
649 [label="gini = 0.0\nsamples = 6\nvalue = [0, 6]\nclass = High"] ;
647 -> 649 ;
650 [label="review_count <= 96.5\ngini = 0.469\nsamples = 8\nvalue = [3, 5]\nclass = High"] ;
646 -> 650 ;
651 [label="review_count <= 88.5\ngini = 0.5\nsamples = 6\nvalue = [3, 3]\nclass = Low"] ;
650 -> 651 ;
652 [label="gini = 0.48\nsamples = 5\nvalue = [2, 3]\nclass = High"] ;
651 -> 652 ;
653 [label="gini = 0.0\nsamples = 1\nvalue = [1, 0]\nclass = Low"] ;
651 -> 653 ;
654 [label="gini = 0.0\nsamples = 2\nvalue = [0, 2]\nclass = High"] ;
650 -> 654 ;
655 [label="gini = 0.0\nsamples = 1\nvalue = [1, 0]\nclass = Low"] ;
643 -> 655 ;
656 [label="GoodForKids <= 0.5\ngini = 0.124\nsamples = 30\nvalue = [2, 28]\nclass = High"] ;
642 -> 656 ;
657 [label="review_count <= 121.5\ngini = 0.219\nsamples = 16\nvalue = [2, 14]\nclass = High"] ;
656 -> 657 ;
658 [label="gini = 0.0\nsamples = 6\nvalue = [0, 6]\nclass = High"] ;
657 -> 658 ;
659 [label="review_count <= 129.5\ngini = 0.32\nsamples = 10\nvalue = [2, 8]\nclass = High"] ;
657 -> 659 ;
660 [label="gini = 0.0\nsamples = 1\nvalue = [1, 0]\nclass = Low"] ;
659 -> 660 ;
661 [label="WiFi <= 0.5\ngini = 0.198\nsamples = 9\nvalue = [1, 8]\nclass = High"] ;
659 -> 661 ;
662 [label="BikeParking <= 0.5\ngini = 0.444\nsamples = 3\nvalue = [1, 2]\nclass = High"] ;
661 -> 662 ;
663 [label="gini = 0.0\nsamples = 1\nvalue = [0, 1]\nclass = High"] ;
662 -> 663 ;
664 [label="gini = 0.5\nsamples = 2\nvalue = [1, 1]\nclass = Low"] ;
662 -> 664 ;
665 [label="gini = 0.0\nsamples = 6\nvalue = [0, 6]\nclass = High"] ;
661 -> 665 ;
666 [label="gini = 0.0\nsamples = 14\nvalue = [0, 14]\nclass = High"] ;
656 -> 666 ;
}